-1.344685070216655731e-02 1.182583626359701157e-02 8.678448386490345001e-03 2.476727962493896484e-02 7.886461913585662842e-02 -5.443841218948364258e-02 5.079877004027366638e-02 7.961537688970565796e-02 -7.935279048979282379e-03 7.319424301385879517e-02 2.633770182728767395e-02 1.116416044533252716e-02 -9.888184070587158203e-02 3.584361448884010315e-02 -1.732605393044650555e-03 -5.850373208522796631e-02 -7.727688550949096680e-02 6.885325908660888672e-02 -9.115403145551681519e-02 3.467612713575363159e-02 5.975035578012466431e-02 3.540543094277381897e-02 1.680339314043521881e-02 -3.749364614486694336e-02 8.865194022655487061e-02 5.226256698369979858e-02 4.001968353986740112e-02 -3.473525121808052063e-02 7.102335244417190552e-02 6.303673982620239258e-02 -4.732920229434967041e-02 -5.139420926570892334e-02 -5.800876766443252563e-02 -3.067012503743171692e-02 -1.160479113459587097e-01 -4.759839549660682678e-02 -9.114993363618850708e-02 1.348118390887975693e-02 2.230182522907853127e-03 6.249972060322761536e-02 3.650053963065147400e-02 -1.092505753040313721e-01 -7.251878827810287476e-02 4.718760401010513306e-02 8.852353319525718689e-03 6.652516778558492661e-03 4.160983860492706299e-02 3.413142263889312744e-02 -4.712907224893569946e-02 3.846993669867515564e-03 -9.688723087310791016e-02 -5.950439721345901489e-02 -6.609231978654861450e-02 -1.977419480681419373e-02 -9.405415505170822144e-02 -1.019070819020271301e-01 -2.446395717561244965e-02 -2.726050792261958122e-03 1.576185040175914764e-02 -6.834985315799713135e-02 -1.226915717124938965e-01 -9.718014299869537354e-02 -5.206692218780517578e-02 -4.099674150347709656e-02 -4.572534561157226562e-02 8.034559339284896851e-02 7.692414522171020508e-02 -3.227549837902188301e-03 -7.733391970396041870e-02 -8.231507241725921631e-02 -5.787716805934906006e-02 8.210527896881103516e-02 -2.684452757239341736e-02 -1.062397658824920654e-01 9.500223398208618164e-02 6.712457537651062012e-02 -9.870519489049911499e-02 -1.182625629007816315e-02 -8.434262126684188843e-02 5.596219748258590698e-02 -9.618312120437622070e-02 -4.882768541574478149e-02 6.438334286212921143e-02 6.551200896501541138e-02 -3.533446416258811951e-02 -7.471778430044651031e-03 -2.599405311048030853e-02 -2.745389565825462341e-02 -5.865864083170890808e-02 -3.992300480604171753e-02 -4.944343864917755127e-02 -3.613975644111633301e-02 1.142356824129819870e-02 3.768821433186531067e-02 2.066674642264842987e-02 -5.099627003073692322e-02 5.811602994799613953e-02 4.682709928601980209e-03 3.744056820869445801e-02 2.196585200726985931e-02 7.468355447053909302e-02 -2.439512871205806732e-02 -6.962431967258453369e-02 -5.389363318681716919e-02 -5.096930265426635742e-02 6.695918738842010498e-02 -2.246353216469287872e-02 -4.391667246818542480e-02 -2.040294185280799866e-02 -9.910595417022705078e-02 8.439613133668899536e-02 6.332292832667008042e-05 -5.727543309330940247e-02 2.429148368537425995e-02 -5.604594573378562927e-02 4.537225514650344849e-02 -9.223490208387374878e-02 -7.425145804882049561e-02 -7.484238594770431519e-02 8.228726685047149658e-02 -1.102087274193763733e-02 -6.960798054933547974e-02 4.611956886947154999e-03 5.057686567306518555e-02 -5.238728970289230347e-02 1.035937443375587463e-01 -7.962821051478385925e-03 -4.523136466741561890e-02 5.550181865692138672e-02 4.001677781343460083e-02 -1.422911696135997772e-02 -1.824416965246200562e-02 -4.254085198044776917e-02 -1.193550229072570801e-01 8.880677074193954468e-02 9.704709798097610474e-02 7.880697399377822876e-02 -6.270802766084671021e-02 -9.821815788745880127e-02 -3.025294281542301178e-02 -1.215390488505363464e-01 5.198843777179718018e-02 -9.220573306083679199e-02 6.020282581448554993e-02 -1.795477978885173798e-02 -3.288620337843894958e-02 1.111929193139076233e-01 5.763314664363861084e-03 9.598241001367568970e-02 5.282248556613922119e-02 -4.168039653450250626e-03 3.449999168515205383e-02 -3.770075365900993347e-02 -8.604270219802856445e-02 -1.278147846460342407e-02 -2.722259238362312317e-02 -1.736267656087875366e-02 -7.397563755512237549e-02 -7.550208270549774170e-02 5.500069260597229004e-02 -4.543144628405570984e-02 1.712237484753131866e-02 -1.811916753649711609e-02 1.067073736339807510e-02 -3.691606968641281128e-02 -6.940785795450210571e-02 -1.447423547506332397e-02 8.675113320350646973e-03 -2.375184930860996246e-02 -2.963981404900550842e-02 1.126990839838981628e-01 -7.645410299301147461e-02 -4.927325621247291565e-02 8.820102363824844360e-02 -4.235859587788581848e-02 5.111245810985565186e-02 -9.760035574436187744e-02 -9.036762267351150513e-02 -2.913177199661731720e-02 4.246432334184646606e-03 -7.274913787841796875e-02 -9.701624512672424316e-02 7.381481584161520004e-03 2.745563350617885590e-02 3.014390543103218079e-02 -9.165020287036895752e-02 1.577592827379703522e-02 3.206988796591758728e-02 -1.381429005414247513e-02 6.823431700468063354e-02 2.282042615115642548e-02 -8.883809298276901245e-02 4.687475785613059998e-02 8.342318236827850342e-02 3.711675480008125305e-02 -7.774497568607330322e-02 -1.973817683756351471e-02 -9.045190177857875824e-03 -5.896969139575958252e-02 7.095906138420104980e-02 -6.266400218009948730e-02 1.122397743165493011e-02 2.131951227784156799e-02 2.103605307638645172e-03 6.934914737939834595e-02 7.636316120624542236e-02 6.267821043729782104e-02 -8.224415034055709839e-02 5.939790979027748108e-03 8.648234605789184570e-02 -5.299508571624755859e-02 2.047555986791849136e-03 -6.026099435985088348e-04 -6.278893351554870605e-02 4.546820372343063354e-02 7.481066882610321045e-02 -5.873002484440803528e-02 2.129249274730682373e-02 7.515488564968109131e-02 6.142009049654006958e-03 -9.469397366046905518e-02 -7.445512712001800537e-02 9.029596298933029175e-02 -4.249257966876029968e-02 9.584403038024902344e-02 7.556499540805816650e-02 -6.578636169433593750e-02 -2.343160472810268402e-02 -7.466053962707519531e-02 -2.024967782199382782e-02 -8.503544144332408905e-03 -4.512440785765647888e-02 4.054062813520431519e-02 4.405416175723075867e-02 5.436635762453079224e-02 -5.374562740325927734e-02 6.179660931229591370e-02 2.143218368291854858e-02 2.736414037644863129e-02 -1.167131587862968445e-01 -5.473302304744720459e-02 -7.138007879257202148e-02 6.820604950189590454e-02 6.469161063432693481e-02 -6.450822204351425171e-02 -6.095078960061073303e-02 -3.620358929038047791e-02 -9.163995832204818726e-02 -5.716610327363014221e-02 1.015191245824098587e-02 -8.520645089447498322e-03 8.509764820337295532e-02 -1.021428033709526062e-01 -6.110711023211479187e-02 -8.790510892868041992e-02 -2.820232766680419445e-04
-6.050542928278446198e-03 -3.082790039479732513e-02 2.367333276197314262e-03 6.378388404846191406e-02 2.479854971170425415e-02 -6.841590255498886108e-02 9.569447487592697144e-02 -4.059849679470062256e-02 -9.803062677383422852e-02 2.703587897121906281e-02 2.777461148798465729e-02 5.307049304246902466e-02 8.833570778369903564e-02 -9.018892049789428711e-02 6.958405673503875732e-02 -4.046231880784034729e-02 6.625484675168991089e-02 -3.539378941059112549e-02 1.015297397971153259e-01 -4.883051663637161255e-02 6.919182837009429932e-02 -5.783196073025465012e-03 -4.433158412575721741e-02 1.028722990304231644e-02 -6.501729600131511688e-03 -6.626261863857507706e-03 6.307744979858398438e-02 -7.610201090574264526e-02 -7.600511889904737473e-03 -5.989079922437667847e-02 6.200178340077400208e-02 -1.920661423355340958e-03 6.013451516628265381e-02 -1.210751682519912720e-01 1.332688797265291214e-02 -5.714379996061325073e-02 -8.210326731204986572e-02 -5.829601362347602844e-02 -5.792500823736190796e-02 6.286662817001342773e-02 5.389710143208503723e-02 2.846815623342990875e-03 -5.995495989918708801e-02 3.252283483743667603e-02 2.569651603698730469e-02 -9.312492609024047852e-02 1.043090969324111938e-01 -5.950079858303070068e-02 -2.915271185338497162e-02 -2.929452247917652130e-02 -3.308857232332229614e-02 1.605799049139022827e-02 5.347842350602149963e-02 -5.354619771242141724e-02 8.212673664093017578e-02 -2.827530167996883392e-02 1.726694963872432709e-02 -4.095963388681411743e-02 3.459825739264488220e-02 -6.998828053474426270e-02 1.491720322519540787e-02 3.294020425528287888e-03 2.890241146087646484e-02 -8.310542255640029907e-02 -3.095235861837863922e-02 -2.541808411478996277e-02 -5.274588242173194885e-02 2.920363843441009521e-02 -6.937434524297714233e-02 1.029431447386741638e-01 6.629724055528640747e-02 -5.732014402747154236e-02 1.385604497045278549e-03 7.892468571662902832e-02 -6.971971690654754639e-02 -9.275963902473449707e-02 -6.832312047481536865e-02 -1.252463273704051971e-02 2.249629236757755280e-02 -7.496308535337448120e-02 7.425183057785034180e-02 -7.418116182088851929e-02 -5.885463580489158630e-02 -5.553624033927917480e-02 -1.057162582874298096e-01 3.949935734272003174e-02 1.155309826135635376e-01 -8.903938345611095428e-03 -3.476004675030708313e-02 -1.939701288938522339e-02 5.134441703557968140e-02 7.955954223871231079e-02 -1.421736087650060654e-02 1.905546896159648895e-02 7.773399353027343750e-02 1.138649135828018188e-02 -4.741058871150016785e-02 1.947702653706073761e-02 5.237813293933868408e-02 -4.004643484950065613e-02 4.594926908612251282e-02 4.430773202329874039e-03 8.173512667417526245e-02 -4.599000886082649231e-02 5.673991888761520386e-02 9.052632749080657959e-02 -2.575398655608296394e-03 7.291571050882339478e-02 -9.866801649332046509e-02 -6.821000576019287109e-02 8.190501481294631958e-02 -8.846544474363327026e-02 -2.839138917624950409e-02 2.584880404174327850e-02 3.455568104982376099e-02 -4.923174902796745300e-02 2.002139203250408173e-02 1.436681300401687622e-02 7.091697305440902710e-02 7.216841727495193481e-02 -8.168670535087585449e-02 3.400140255689620972e-02 -3.079787641763687134e-02 -2.743890881538391113e-02 7.401247322559356689e-02 1.605979539453983307e-02 8.010555803775787354e-02 -1.234013289213180542e-01 -2.681195922195911407e-02 -8.777028322219848633e-02 -3.992111235857009888e-02 -2.632285095751285553e-02 4.519301466643810272e-03 4.464920610189437866e-02 -1.337807346135377884e-02 -6.502697616815567017e-02 -3.656703978776931763e-03 -1.014840230345726013e-01 6.932696700096130371e-02 -6.940433382987976074e-02 -6.744128768332302570e-04 -9.658413380384445190e-02 -3.448059409856796265e-02 -4.556485265493392944e-02 -8.133283257484436035e-02 3.830479830503463745e-02 -2.989731356501579285e-02 -2.309545688331127167e-02 -6.929110735654830933e-02 3.694046055898070335e-03 6.597129255533218384e-02 -1.010657846927642822e-02 -5.399999767541885376e-02 -3.374313237145543098e-03 8.036441355943679810e-02 1.154758110642433167e-01 -8.346429467201232910e-02 -5.135046318173408508e-02 9.678063541650772095e-02 6.109518557786941528e-02 2.151922322809696198e-03 -2.600203081965446472e-02 5.293649807572364807e-02 1.353558246046304703e-02 5.484343320131301880e-02 -5.953028425574302673e-02 -1.000736840069293976e-02 -1.161097083240747452e-02 1.471105869859457016e-02 7.111166417598724365e-02 3.809189423918724060e-02 1.835703477263450623e-02 6.399045139551162720e-02 4.431674629449844360e-02 -8.420058339834213257e-02 -7.243432849645614624e-02 3.047317266464233398e-02 -1.064326092600822449e-01 9.453618526458740234e-02 7.176055014133453369e-02 7.572657614946365356e-02 9.486079216003417969e-02 -8.504781872034072876e-02 -7.040425390005111694e-02 -5.148247256875038147e-02 1.000557392835617065e-01 -8.178146928548812866e-02 -9.554122388362884521e-02 8.874207735061645508e-02 -8.667033910751342773e-02 -2.655068784952163696e-02 6.371737271547317505e-02 -5.786251276731491089e-02 3.732553496956825256e-02 -4.388266429305076599e-02 1.255379617214202881e-02 2.715906314551830292e-02 -9.308109991252422333e-03 -3.858150541782379150e-02 1.031950488686561584e-01 4.826574027538299561e-02 -5.346101149916648865e-02 5.156591534614562988e-02 2.721755951642990112e-02 4.777801036834716797e-02 -7.613822072744369507e-02 -8.985943347215652466e-02 6.830982118844985962e-02 -2.015514299273490906e-02 -4.345886781811714172e-02 -1.295066438615322113e-03 -3.869918733835220337e-02 -7.733002305030822754e-02 5.776705592870712280e-02 -7.422150671482086182e-02 -7.529852539300918579e-02 7.401956617832183838e-02 -2.425822429358959198e-02 -1.204192359000444412e-02 -6.815657764673233032e-02 -4.099009186029434204e-02 -5.194668844342231750e-02 -7.898688316345214844e-02 -2.290759002789855003e-03 -9.213879704475402832e-02 -8.776938915252685547e-02 -1.493570022284984589e-02 8.093547821044921875e-02 -1.754675805568695068e-02 8.342803269624710083e-02 1.126797571778297424e-01 8.321083337068557739e-02 -2.191012725234031677e-02 -5.360622704029083252e-02 -6.433130800724029541e-02 -7.750989496707916260e-02 6.796217709779739380e-02 -6.944447755813598633e-02 8.153925091028213501e-02 4.556026309728622437e-02 8.111143857240676880e-02 6.949511915445327759e-02 -8.424823731184005737e-02 -1.001629382371902466e-01 2.694906480610370636e-02 1.450158357620239258e-01 -3.752665966749191284e-02 2.489841356873512268e-02 -5.794345587491989136e-02 -4.408063739538192749e-02 -1.131373364478349686e-02 -5.620156228542327881e-02 1.805349998176097870e-02 -3.304109722375869751e-02 -5.091136693954467773e-02 2.871077507734298706e-02
7.500451803207397461e-02 4.469782859086990356e-02 6.437600404024124146e-02 -5.939794238656759262e-03 -3.925077617168426514e-02 -5.570470169186592102e-02 8.898019045591354370e-02 2.483568713068962097e-02 -4.846397787332534790e-02 -1.254782974720001221e-01 8.401321619749069214e-02 -8.019459247589111328e-02 2.429386414587497711e-02 -6.869141012430191040e-02 -4.957190901041030884e-02 5.355533584952354431e-02 7.528378069400787354e-02 -9.862229228019714355e-02 7.613408565521240234e-02 3.361117560416460037e-03 -9.436895698308944702e-02 6.665050983428955078e-02 -3.609647601842880249e-02 7.338699884712696075e-03 3.836841881275177002e-02 -8.396652340888977051e-02 -1.040820591151714325e-02 -6.584688276052474976e-02 -4.019927978515625000e-02 5.805205553770065308e-03 -3.809470683336257935e-02 7.365736365318298340e-02 -4.867429286241531372e-02 -2.540679089725017548e-02 4.391528666019439697e-02 -1.081842230632901192e-03 8.559688180685043335e-02 -1.467015594244003296e-02 -2.224233699962496758e-03 9.087748080492019653e-02 -5.374603718519210815e-02 -5.444120243191719055e-02 -6.992872059345245361e-02 2.349475957453250885e-02 -7.856070250272750854e-02 -6.250662263482809067e-03 -9.744296222925186157e-02 -8.155002444982528687e-02 -3.812536969780921936e-02 8.043510466814041138e-02 7.695928961038589478e-02 -4.345496743917465210e-02 -1.353807561099529266e-02 -5.696769058704376221e-02 1.267855614423751831e-02 -5.321075767278671265e-02 -5.269189178943634033e-02 -4.047600552439689636e-02 -8.704511821269989014e-02 -6.833910942077636719e-02 -1.747870072722434998e-02 -8.648448437452316284e-02 -3.291090577840805054e-02 5.289286375045776367e-02 -1.040337234735488892e-01 -7.145120948553085327e-02 -6.202293932437896729e-02 6.033958122134208679e-02 6.091066077351570129e-02 4.176333546638488770e-02 1.067608222365379333e-02 -5.546572804450988770e-02 -4.992328584194183350e-02 -3.355722874402999878e-02 -8.005567826330661774e-03 8.099039644002914429e-02 9.583653509616851807e-02 -1.543758530169725418e-02 5.058781057596206665e-02 3.533948212862014771e-02 -2.917979098856449127e-02 -3.688625991344451904e-02 -3.279918804764747620e-02 -7.583540678024291992e-02 -4.617660865187644958e-02 5.739636719226837158e-02 -3.814829140901565552e-02 2.774400077760219574e-02 -3.485783934593200684e-02 3.682183101773262024e-03 -3.715630993247032166e-02 -1.390897575765848160e-02 -1.206472739577293396e-01 -4.410510510206222534e-02 -1.158747151494026184e-01 -7.349868118762969971e-02 -2.459140960127115250e-03 8.750066161155700684e-02 -5.149776861071586609e-02 7.764914631843566895e-02 3.588170185685157776e-02 -9.515056759119033813e-02 6.782481446862220764e-03 6.479407846927642822e-02 4.179561138153076172e-02 4.023217782378196716e-02 7.215400785207748413e-02 -8.592991530895233154e-02 5.508365854620933533e-02 -4.740630090236663818e-02 -7.990831881761550903e-02 -6.987926363945007324e-02 2.642964012920856476e-02 6.157331168651580811e-02 3.520566970109939575e-02 -1.672646467341110110e-04 -5.595198273658752441e-02 2.653405442833900452e-02 7.972494512796401978e-02 3.530391678214073181e-02 -5.999440699815750122e-02 3.061800077557563782e-02 -8.231066912412643433e-02 1.876796944998204708e-03 3.659541904926300049e-02 4.278201982378959656e-02 7.821071892976760864e-02 3.105851076543331146e-02 -7.510899007320404053e-02 6.621582806110382080e-02 -6.847243756055831909e-02 6.924127042293548584e-02 -1.760344021022319794e-02 -2.062877826392650604e-02 -7.492919266223907471e-02 -1.395219564437866211e-01 -4.263259842991828918e-02 -6.590870767831802368e-02 4.824488982558250427e-02 -2.591141674201935530e-04 -2.603138238191604614e-02 8.189924061298370361e-02 -1.427999325096607208e-02 5.156713724136352539e-02 5.791445448994636536e-02 3.024782054126262665e-02 -7.648425549268722534e-02 -7.139814645051956177e-02 4.569637775421142578e-02 -3.119509853422641754e-02 -1.131580322980880737e-01 -7.830997556447982788e-02 -2.074408903717994690e-02 2.385617792606353760e-02 -6.883125752210617065e-02 -1.135884299874305725e-01 -3.483342006802558899e-02 6.076691299676895142e-02 3.475316613912582397e-02 -1.620303839445114136e-02 -3.645731508731842041e-02 7.248436659574508667e-02 -1.566000580787658691e-01 -4.845205694437026978e-02 7.743279635906219482e-02 -1.399511378258466721e-02 -1.161137223243713379e-02 2.925569005310535431e-02 3.615779057145118713e-02 -1.793330311775207520e-01 -1.282481476664543152e-02 4.775626584887504578e-02 7.576474547386169434e-02 4.801740869879722595e-02 -3.250887617468833923e-02 5.306728556752204895e-02 -1.057989969849586487e-01 -2.471882477402687073e-02 -9.984672814607620239e-02 -1.264206618070602417e-01 3.471028432250022888e-02 -8.188115060329437256e-02 7.401168346405029297e-02 3.173502534627914429e-02 -4.741701483726501465e-02 -6.607741117477416992e-02 2.923164749518036842e-03 3.905107080936431885e-02 -4.647896438837051392e-02 -2.817904204130172729e-02 4.816617816686630249e-02 -7.578197866678237915e-02 5.431590601801872253e-02 6.241207569837570190e-02 7.231140625663101673e-04 8.640077896416187286e-03 4.511118680238723755e-02 5.124571919441223145e-02 -4.156387969851493835e-02 -1.512760668992996216e-02 -4.143375903367996216e-02 -1.183026283979415894e-01 5.075044929981231689e-03 6.424451712518930435e-03 -3.795561566948890686e-02 7.919044233858585358e-03 7.022596895694732666e-02 4.676433280110359192e-02 -4.237319901585578918e-02 -7.471027225255966187e-02 6.913740187883377075e-02 4.089010413736104965e-03 -1.908410340547561646e-02 -5.321560427546501160e-02 -7.191513478755950928e-02 -1.402058172971010208e-02 6.456876546144485474e-02 8.981255441904067993e-02 -1.849153824150562286e-02 4.782144352793693542e-02 -3.335447981953620911e-03 2.398045174777507782e-02 1.308976206928491592e-03 -2.531106583774089813e-02 3.675938397645950317e-02 -8.276495337486267090e-02 -8.945531398057937622e-02 -1.059888675808906555e-01 8.068587630987167358e-02 4.737595841288566589e-02 -1.546291820704936981e-02 6.383726000785827637e-02 2.387414127588272095e-02 -7.820099592208862305e-02 -6.542280316352844238e-02 2.948312833905220032e-02 -8.334736526012420654e-02 5.884617567062377930e-02 7.279006391763687134e-02 -3.272250667214393616e-02 8.588558435440063477e-02 2.457747980952262878e-02 6.491779536008834839e-02 1.378462649881839752e-02 7.474687695503234863e-02 -2.340800687670707703e-02 -3.299873322248458862e-02 6.579276919364929199e-02 9.731249883770942688e-03 4.247649759054183960e-02 -4.935137555003166199e-02 -3.584859147667884827e-02 -5.804952979087829590e-02 1.041735783219337463e-01 -5.326017364859580994e-02 -1.428566314280033112e-02
3.925918415188789368e-02 -5.213807895779609680e-02 5.351784825325012207e-02 -1.159833092242479324e-02 7.092475425451993942e-03 4.670634865760803223e-03 2.249612659215927124e-02 -3.197371214628219604e-02 1.552352309226989746e-02 -3.987216204404830933e-02 -5.107164755463600159e-02 -4.914238234050571918e-04 -2.535591134801506996e-03 1.825352944433689117e-02 6.116592884063720703e-02 -2.315303124487400055e-02 -5.032451078295707703e-02 -9.043000638484954834e-02 5.444885790348052979e-02 -6.030442565679550171e-02 1.391295343637466431e-02 6.573819369077682495e-02 6.886434555053710938e-02 -8.503266423940658569e-02 -1.348457485437393188e-01 1.323700044304132462e-02 -6.957940012216567993e-02 -5.519186612218618393e-03 9.528767550364136696e-04 4.044675827026367188e-02 -5.765371769666671753e-02 4.412839189171791077e-02 1.628718897700309753e-02 -6.155008077621459961e-02 8.084303699433803558e-03 8.396995812654495239e-02 -3.090919926762580872e-02 5.442588031291961670e-02 -5.807022377848625183e-02 6.706448644399642944e-02 8.633051998913288116e-03 6.079440936446189880e-02 7.733802497386932373e-02 4.705844074487686157e-02 -8.062049746513366699e-02 -4.044635221362113953e-02 -9.540271013975143433e-02 5.271590501070022583e-02 -2.310543693602085114e-02 -1.627402380108833313e-02 9.492638707160949707e-02 4.490981251001358032e-02 -1.083434820175170898e-01 -1.653981767594814301e-02 -9.136798977851867676e-02 1.900006271898746490e-02 5.715694651007652283e-02 -7.430532574653625488e-02 2.940457547083497047e-03 4.447563085705041885e-03 9.719862043857574463e-02 2.922250330448150635e-02 -5.939722061157226562e-02 -7.574710249900817871e-02 6.691031903028488159e-02 3.862067684531211853e-02 -6.528685241937637329e-02 1.738352887332439423e-02 3.231888636946678162e-03 -3.000158118084073067e-03 -1.023783683776855469e-01 2.245060727000236511e-02 4.781197383999824524e-02 5.449016019701957703e-02 -3.401427716016769409e-02 2.735591866075992584e-02 6.183223798871040344e-02 7.291012257337570190e-02 -3.765420615673065186e-02 -6.073517724871635437e-02 -6.197933852672576904e-02 1.829960383474826813e-02 5.417340248823165894e-02 -8.928781002759933472e-02 1.888412050902843475e-02 -8.339131250977516174e-03 -4.462766274809837341e-02 2.108003571629524231e-02 -4.541133716702461243e-02 5.340630188584327698e-02 -4.806588962674140930e-02 5.017296969890594482e-02 -8.216590434312820435e-02 3.600455448031425476e-02 2.235721610486507416e-02 7.358182221651077271e-02 -6.378059834241867065e-02 1.050679944455623627e-02 -1.394023746252059937e-01 -8.019982278347015381e-02 -5.129781737923622131e-02 -4.654080048203468323e-02 2.002961933612823486e-02 5.379996262490749359e-03 1.594687439501285553e-02 -4.773538187146186829e-02 4.133290424942970276e-02 3.671412914991378784e-02 -6.907530594617128372e-03 6.364462524652481079e-02 -9.013059549033641815e-03 7.310027722269296646e-03 6.586376577615737915e-02 6.968148052692413330e-02 9.392889216542243958e-03 5.109162256121635437e-02 6.701690703630447388e-02 1.591062732040882111e-02 -1.103093661367893219e-02 -2.974711731076240540e-02 -4.406206309795379639e-02 -1.194610819220542908e-02 3.788540512323379517e-02 1.134740840643644333e-02 7.582248002290725708e-02 5.533942952752113342e-02 -6.856476515531539917e-02 -4.669407755136489868e-02 8.076582103967666626e-02 -2.323982492089271545e-02 -3.337281942367553711e-02 6.872876733541488647e-02 -6.916533410549163818e-02 -2.964487066492438316e-03 -7.309894263744354248e-02 -7.101888209581375122e-02 -5.248251184821128845e-02 -5.866458639502525330e-02 5.212964117527008057e-02 -6.507363170385360718e-02 9.876441210508346558e-02 -2.656122669577598572e-02 7.706423290073871613e-03 -4.656524211168289185e-02 -3.693150356411933899e-02 -7.618056982755661011e-02 2.708751009777188301e-03 -6.833151727914810181e-02 -6.486883759498596191e-02 3.368552774190902710e-02 -5.855014920234680176e-02 1.627442054450511932e-02 2.387417852878570557e-02 3.049731627106666565e-02 4.859732091426849365e-02 2.072404883801937103e-02 5.924282222986221313e-02 -2.052851580083370209e-02 5.522062256932258606e-02 3.722846135497093201e-02 -6.372661143541336060e-02 5.360698699951171875e-02 -1.171927452087402344e-01 -5.902248620986938477e-02 3.192299976944923401e-02 -4.791953414678573608e-02 4.200216755270957947e-02 5.816644057631492615e-02 5.108162388205528259e-02 3.726630657911300659e-02 3.880324074998497963e-03 -2.479895018041133881e-02 1.174957491457462311e-03 -2.856272645294666290e-02 6.865771859884262085e-02 4.215898737311363220e-02 4.895452409982681274e-03 6.422540545463562012e-02 4.351335391402244568e-02 4.258035868406295776e-02 1.141351833939552307e-02 3.741544857621192932e-02 -2.078129909932613373e-02 3.676804527640342712e-02 -4.609281569719314575e-02 2.293690852820873260e-02 -6.820115447044372559e-02 2.855854108929634094e-03 4.587342217564582825e-02 -2.420222619548439980e-03 -3.422713652253150940e-02 1.492538675665855408e-02 -3.337939828634262085e-02 -8.683190494775772095e-02 3.706136718392372131e-02 -4.117788281291723251e-03 -5.790229514241218567e-02 8.303724974393844604e-02 5.940912757068872452e-03 -9.993306547403335571e-02 -6.862770020961761475e-02 6.236308813095092773e-02 -7.944729179143905640e-02 -5.687051638960838318e-02 -3.308674553409218788e-03 3.586132079362869263e-02 1.979773305356502533e-02 5.160364881157875061e-02 9.486117213964462280e-02 3.172462061047554016e-02 5.931694805622100830e-02 2.539719222113490105e-03 -5.791384354233741760e-02 -3.520336374640464783e-02 5.270749703049659729e-02 -6.399157643318176270e-02 1.571344025433063507e-02 -5.780457332730293274e-02 5.672167055308818817e-03 -4.228835180401802063e-02 -3.369271382689476013e-02 3.630591183900833130e-02 -2.739967964589595795e-02 -5.306318774819374084e-02 -5.349970981478691101e-02 -6.392543017864227295e-02 -2.335743280127644539e-03 -1.303590089082717896e-01 -8.370500057935714722e-03 -8.855430781841278076e-02 -1.474895048886537552e-02 2.381227537989616394e-02 3.244693204760551453e-02 4.052280262112617493e-02 -4.340021312236785889e-02 3.414278617128729820e-03 -1.209872309118509293e-02 7.719741761684417725e-02 -1.070377677679061890e-01 -2.965667657554149628e-02 -5.332558974623680115e-02 2.504828013479709625e-02 -6.849877536296844482e-02 -5.537096783518791199e-02 -7.423207163810729980e-02 -1.214635670185089111e-01 7.645776867866516113e-02 7.276291400194168091e-02 -6.544839590787887573e-02 3.920912370085716248e-02 -3.441016376018524170e-02 -5.046430975198745728e-02 -3.562949970364570618e-02 1.847146637737751007e-02 -7.691244129091501236e-03 1.431515533477067947e-02
7.476399093866348267e-02 1.371497195214033127e-02 -7.958243042230606079e-02 1.048583686351776123e-01 -1.012037321925163269e-01 8.500812947750091553e-02 -1.120192706584930420e-01 -7.159855682402849197e-03 -1.047345530241727829e-02 5.315934494137763977e-02 -5.730699375271797180e-02 -8.822108060121536255e-02 4.519677534699440002e-02 -5.103133991360664368e-02 2.064146474003791809e-02 -9.090755134820938110e-02 5.376376211643218994e-02 -3.467540442943572998e-02 -7.594141364097595215e-02 3.050467371940612793e-02 -9.878749959170818329e-03 6.304508447647094727e-02 5.757341627031564713e-03 8.514080941677093506e-02 2.521778829395771027e-02 -9.392329305410385132e-02 4.751479253172874451e-03 2.661235071718692780e-02 -2.390177361667156219e-02 -4.547845944762229919e-02 5.244963988661766052e-02 -6.397408246994018555e-02 -3.201772226020693779e-03 3.635976463556289673e-02 3.909425809979438782e-02 -3.187626972794532776e-02 1.433028839528560638e-02 -8.649740368127822876e-02 -5.521458387374877930e-02 -1.205038204789161682e-01 9.138258174061775208e-03 -2.600958012044429779e-02 2.028082031756639481e-03 -1.248082704842090607e-02 -2.188907749950885773e-02 8.967415243387222290e-02 6.209087558090686798e-03 -2.203235588967800140e-02 7.610727846622467041e-02 3.950875252485275269e-02 3.787532821297645569e-02 6.911621242761611938e-02 8.309251070022583008e-02 -3.870381414890289307e-02 -3.801550716161727905e-02 6.209220364689826965e-02 -1.964108645915985107e-02 6.909415125846862793e-02 -8.362647891044616699e-02 -4.801671579480171204e-02 4.625159502029418945e-02 3.570123761892318726e-02 7.951212674379348755e-02 -4.149904474616050720e-03 -1.999934390187263489e-02 -7.093993574380874634e-02 -6.911685317754745483e-02 7.080660760402679443e-02 7.962437719106674194e-02 -1.749296672642230988e-02 -5.364501103758811951e-02 -7.911105453968048096e-02 5.655204504728317261e-02 4.531430080533027649e-02 -9.618479758501052856e-02 -8.285050839185714722e-02 1.395165454596281052e-03 -3.689254820346832275e-02 1.757218874990940094e-02 5.108918622136116028e-02 -4.427581652998924255e-02 5.656049400568008423e-02 4.936403408646583557e-02 1.226141024380922318e-02 8.137153834104537964e-02 -8.445626497268676758e-02 6.309724599123001099e-02 -2.500388026237487793e-02 1.026668027043342590e-02 3.445785725489258766e-03 3.263192996382713318e-02 -1.672461070120334625e-02 4.198008216917514801e-03 -8.208454400300979614e-02 -8.094120770692825317e-02 -6.849449872970581055e-02 -2.531677111983299255e-02 -7.844104617834091187e-02 -2.062177285552024841e-02 3.165336698293685913e-02 5.167128518223762512e-02 6.370210647583007812e-02 -3.517620963975787163e-03 9.619949385523796082e-03 9.698530286550521851e-02 -6.002938002347946167e-02 1.548034790903329849e-02 8.223406225442886353e-02 3.277223929762840271e-02 2.148114703595638275e-02 -7.038842886686325073e-02 5.017058923840522766e-02 -8.333930373191833496e-02 -9.413797408342361450e-02 -9.040981531143188477e-02 4.126917198300361633e-02 4.746839776635169983e-02 -8.425399661064147949e-02 -8.117701113224029541e-02 -5.163856968283653259e-02 4.806359857320785522e-02 -3.359145671129226685e-02 -7.174834609031677246e-02 4.342309385538101196e-02 -1.003023907542228699e-01 3.302463563159108162e-03 -1.319522969424724579e-02 -5.011327564716339111e-02 -2.661784179508686066e-02 7.454350590705871582e-02 8.068114519119262695e-02 -8.973516523838043213e-02 -2.188319899141788483e-02 -6.676653772592544556e-02 3.820618987083435059e-02 -5.071558803319931030e-02 4.977748543024063110e-02 1.389761338941752911e-03 -6.713204085826873779e-02 4.943583905696868896e-02 -1.322426646947860718e-01 -8.448015898466110229e-02 -7.136199623346328735e-02 -1.010624542832374573e-01 -8.028333634138107300e-02 -3.289436176419258118e-02 -3.932560980319976807e-02 -5.019003525376319885e-02 -3.379778703674674034e-03 7.812241464853286743e-02 7.532311137765645981e-03 4.222352430224418640e-02 6.146404892206192017e-02 3.914394229650497437e-02 -2.734262496232986450e-02 3.036465262994170189e-03 -8.748599886894226074e-02 4.528017714619636536e-02 -2.567223738878965378e-03 -4.060491546988487244e-02 -9.245426952838897705e-02 -9.020005911588668823e-02 -2.379058860242366791e-02 -1.517188269644975662e-02 4.364312067627906799e-02 6.681507080793380737e-02 2.064938656985759735e-02 -1.008381769061088562e-01 7.894828170537948608e-02 3.108663484454154968e-03 -4.381671547889709473e-02 9.098316659219563007e-04 -6.926421076059341431e-02 -1.876919716596603394e-02 -3.506249748170375824e-03 3.499950096011161804e-02 -3.100756369531154633e-02 2.728485735133290291e-03 1.216943375766277313e-02 1.159099489450454712e-01 1.928527653217315674e-02 -3.390611335635185242e-02 -8.949598670005798340e-02 -5.132757127285003662e-02 -9.047161787748336792e-02 -4.883023723959922791e-02 9.347441792488098145e-02 -8.951047807931900024e-02 3.687575086951255798e-02 3.665773943066596985e-02 -1.611336506903171539e-02 4.661416634917259216e-02 -7.051133364439010620e-02 1.960767060518264771e-02 -3.010498918592929840e-02 2.011966705322265625e-02 -6.357125937938690186e-02 -9.938308596611022949e-02 4.118305165320634842e-03 -7.388769090175628662e-02 5.922965332865715027e-02 -6.208540406078100204e-03 9.605544805526733398e-02 -5.932296440005302429e-02 -1.784930750727653503e-02 -4.075863584876060486e-02 5.124841630458831787e-02 -8.192716538906097412e-02 -9.561920911073684692e-02 -1.613771542906761169e-02 -8.523605763912200928e-02 -5.264313146471977234e-02 4.180383309721946716e-02 -6.112656369805335999e-02 -4.695696383714675903e-02 -2.547785453498363495e-02 1.272077113389968872e-02 7.203825563192367554e-02 2.818818576633930206e-02 1.671873033046722412e-02 8.112598955631256104e-02 8.192454278469085693e-02 -4.705647379159927368e-02 5.624556168913841248e-02 -6.418587639927864075e-03 7.121898233890533447e-02 7.019574195146560669e-02 -2.437913231551647186e-02 2.898392267525196075e-02 3.267065808176994324e-02 -7.083988189697265625e-02 -5.146941542625427246e-02 -1.136789992451667786e-01 -1.550807617604732513e-02 1.590077579021453857e-02 -2.296657115221023560e-02 -1.777512393891811371e-02 -2.651557140052318573e-02 -8.815297484397888184e-02 5.913687869906425476e-02 6.235335022211074829e-03 -4.163674637675285339e-02 -5.461107194423675537e-02 -2.400857210159301758e-02 6.858467310667037964e-02 -1.380021031945943832e-02 -9.287995845079421997e-02 -1.281456183642148972e-02 7.174096256494522095e-02 8.668124675750732422e-02 -5.212756618857383728e-02 -4.852356761693954468e-02 3.847370669245719910e-02 2.147801034152507782e-02 7.458446174860000610e-02 9.761153161525726318e-02
-1.960384100675582886e-02 -1.350118517875671387e-01 -5.252457782626152039e-02 -4.665683582425117493e-02 8.930844813585281372e-02 5.962587893009185791e-02 -3.711815550923347473e-02 -3.140849247574806213e-02 -3.976315632462501526e-02 6.224062293767929077e-02 -9.490255266427993774e-02 -6.711481511592864990e-02 5.690881609916687012e-02 -6.845249235630035400e-02 -6.917373090982437134e-02 6.823343038558959961e-02 2.200031466782093048e-02 2.741738222539424896e-02 -7.139191031455993652e-02 -6.786480545997619629e-02 1.696066814474761486e-03 7.976734638214111328e-02 -9.376013278961181641e-02 -3.323758393526077271e-02 -1.102760285139083862e-01 6.671117991209030151e-02 -6.263814866542816162e-02 -4.563870280981063843e-02 -4.069018363952636719e-02 1.885931938886642456e-03 3.724833205342292786e-02 -1.001974269747734070e-01 -1.138744428753852844e-01 -9.460539557039737701e-03 2.471478842198848724e-02 -1.235251501202583313e-02 7.752631604671478271e-02 4.093434289097785950e-02 1.087323278188705444e-01 -2.104109153151512146e-02 1.670424267649650574e-02 1.732944743707776070e-03 2.889065816998481750e-02 -2.347310446202754974e-02 9.303428977727890015e-02 -8.657535910606384277e-02 -1.015681922435760498e-01 1.213940675370395184e-03 -5.436542257666587830e-02 -7.167467474937438965e-02 -3.090142644941806793e-02 3.435124456882476807e-02 -7.806448265910148621e-03 -3.414076939225196838e-02 8.270545303821563721e-02 6.005293503403663635e-02 -4.546672105789184570e-02 -6.375920772552490234e-02 5.967459082603454590e-02 -9.924766421318054199e-02 2.001379616558551788e-02 -2.406096458435058594e-02 -8.046408742666244507e-02 -6.660962849855422974e-02 -3.972712531685829163e-02 -5.484402924776077271e-02 4.535972699522972107e-02 -9.541853069094941020e-05 7.239684928208589554e-03 -1.912678480148315430e-01 -5.624447390437126160e-02 1.132142823189496994e-02 6.442148238420486450e-02 -1.252731680870056152e-01 -7.429638504981994629e-02 -5.055091902613639832e-02 -3.648323193192481995e-02 5.269538983702659607e-02 4.763351753354072571e-02 -3.840363398194313049e-02 -3.680962324142456055e-02 3.230861574411392212e-02 2.900105156004428864e-02 -3.777814283967018127e-02 -4.663917422294616699e-02 4.090252798050642014e-03 -2.447762060910463333e-03 4.512472450733184814e-02 -5.073994025588035583e-02 -4.922361299395561218e-02 -1.117611490190029144e-02 -1.742799021303653717e-02 -4.205103591084480286e-02 3.992804139852523804e-02 9.719204902648925781e-02 8.108809590339660645e-02 -3.151935711503028870e-02 -5.121584609150886536e-02 -8.837293088436126709e-02 4.317558929324150085e-02 1.496387366205453873e-02 1.633702777326107025e-02 6.555220484733581543e-02 -1.145358569920063019e-02 -8.233367465436458588e-03 -1.519307494163513184e-02 -9.553258866071701050e-02 -3.707056120038032532e-02 7.733630388975143433e-02 4.676529765129089355e-02 1.005075573921203613e-01 7.175482343882322311e-03 -4.115667194128036499e-02 2.847946807742118835e-02 2.879789285361766815e-02 7.171579450368881226e-02 1.497286558151245117e-02 1.784860715270042419e-02 -8.673764020204544067e-02 -6.288734078407287598e-02 -2.334928698837757111e-02 -5.770515650510787964e-02 1.198268234729766846e-01 -3.852311521768569946e-02 -6.069193407893180847e-02 -1.231440808624029160e-02 -3.686508536338806152e-02 1.321637332439422607e-01 4.332070797681808472e-02 -1.227557510137557983e-01 6.903651356697082520e-02 -7.178995758295059204e-02 6.241464242339134216e-02 1.953985914587974548e-02 6.748870760202407837e-02 3.189893066883087158e-02 5.912975966930389404e-02 3.612793982028961182e-02 3.373361751437187195e-02 3.395373746752738953e-02 9.038671106100082397e-02 -3.517851233482360840e-02 -5.917641334235668182e-03 -1.026530042290687561e-01 2.709727734327316284e-02 -9.168513864278793335e-02 -1.014370545744895935e-01 3.029270097613334656e-02 4.983188956975936890e-02 -1.446883231401443481e-01 -7.369379699230194092e-02 6.553695350885391235e-02 -1.046813428401947021e-01 -5.007153376936912537e-02 6.649670749902725220e-02 -1.066879183053970337e-01 6.902796775102615356e-02 3.218336030840873718e-02 -3.354052081704139709e-02 9.698177874088287354e-02 1.212676540017127991e-01 6.702718883752822876e-02 2.247739955782890320e-02 -7.337885349988937378e-02 -5.439844680950045586e-04 -5.373268388211727142e-03 1.392803434282541275e-02 6.184719502925872803e-02 -7.850442081689834595e-02 1.039100140333175659e-01 -9.924017637968063354e-02 2.056010439991950989e-02 2.052392251789569855e-02 3.962561860680580139e-02 6.167995184659957886e-02 1.336939185857772827e-01 6.129616498947143555e-02 8.873216062784194946e-02 3.595079481601715088e-02 -5.141835659742355347e-02 -6.094605475664138794e-02 3.981275483965873718e-02 -1.580961048603057861e-02 5.128432810306549072e-02 -4.659571126103401184e-02 4.450673982501029968e-02 -6.676199287176132202e-02 -6.787049025297164917e-02 -1.852784864604473114e-02 -4.913921281695365906e-02 3.248990327119827271e-02 -9.028825163841247559e-02 -2.446242608129978180e-02 3.796852007508277893e-02 -2.349464036524295807e-02 -3.794370591640472412e-02 -1.167459562420845032e-01 2.255651541054248810e-02 -8.468710817396640778e-03 -2.247433643788099289e-03 -8.821206539869308472e-02 -2.176382020115852356e-02 -1.315056979656219482e-01 8.364804089069366455e-02 -6.038637831807136536e-03 9.367011487483978271e-02 -4.210284352302551270e-02 4.209235310554504395e-02 -6.186620891094207764e-02 -5.846707895398139954e-02 -3.059776872396469116e-02 6.719750910997390747e-02 -5.859345942735671997e-02 5.458799004554748535e-02 -5.934800580143928528e-02 1.016112416982650757e-02 -1.076071560382843018e-01 -4.337532911449670792e-03 6.635377556085586548e-02 1.471337489783763885e-02 -4.601618647575378418e-02 6.645040959119796753e-02 -2.044132351875305176e-02 -4.904003813862800598e-02 -6.673803180456161499e-02 -2.889255061745643616e-02 3.888850286602973938e-02 8.800820261240005493e-02 -4.718131851404905319e-03 -3.777254000306129456e-02 -7.356137782335281372e-02 -6.974533945322036743e-02 3.124393709003925323e-02 7.190407812595367432e-02 8.619517832994461060e-02 -8.078707382082939148e-03 -9.675250202417373657e-02 -2.960865385830402374e-02 -7.800771296024322510e-02 1.907444559037685394e-03 4.030646011233329773e-02 -6.927713006734848022e-02 -5.876297876238822937e-02 3.514828905463218689e-02 -3.134439885616302490e-02 -6.500397622585296631e-02 4.931944981217384338e-02 -4.345966503024101257e-02 1.136330887675285339e-02 -2.795254345983266830e-03 -9.642881900072097778e-02 9.984591603279113770e-02 -7.732293754816055298e-02 -6.538862735033035278e-02 -9.698725491762161255e-02 -7.385608553886413574e-02
6.018449366092681885e-02 6.343323737382888794e-02 -3.351377323269844055e-02 -6.933360546827316284e-02 1.743557304143905640e-02 -1.092289835214614868e-01 -2.671748772263526917e-02 6.117778271436691284e-02 2.721164375543594360e-02 5.005800724029541016e-02 -5.915598198771476746e-02 -7.199462503194808960e-02 -4.252723604440689087e-02 2.692733146250247955e-02 -7.725478708744049072e-02 7.570956647396087646e-02 -1.857448741793632507e-02 -1.079630851745605469e-02 -5.577495321631431580e-04 4.399977996945381165e-02 8.383449167013168335e-02 5.958503112196922302e-03 7.630947977304458618e-02 4.170131683349609375e-02 1.717937365174293518e-02 -7.573707401752471924e-02 2.286114357411861420e-02 1.995357684791088104e-02 -7.638242095708847046e-02 1.239157095551490784e-02 9.539888054132461548e-02 9.372719796374440193e-04 -5.056811869144439697e-02 8.846580237150192261e-02 -1.127621624618768692e-02 -4.235938191413879395e-02 -1.347510814666748047e-01 7.839501649141311646e-02 6.879507005214691162e-02 -9.273125976324081421e-02 -8.407042920589447021e-02 -6.606615334749221802e-02 -9.124635159969329834e-02 5.118224397301673889e-02 -6.060939282178878784e-02 8.066198974847793579e-02 -2.027628384530544281e-02 -2.271265536546707153e-02 -4.941522330045700073e-02 7.067874819040298462e-02 -1.154230833053588867e-01 -7.176589965820312500e-02 -9.667364507913589478e-02 2.066217921674251556e-02 -2.639732882380485535e-02 -1.268075257539749146e-01 -1.074648723006248474e-01 -1.324996165931224823e-02 8.463797718286514282e-02 1.169246970675885677e-03 -2.635400928556919098e-02 -3.074882179498672485e-02 4.433275386691093445e-02 -3.942592814564704895e-02 -7.540022581815719604e-02 -4.440066590905189514e-02 -6.357526034116744995e-02 -8.287642896175384521e-02 7.077860087156295776e-02 -1.134364381432533264e-01 7.339563965797424316e-02 -1.367432437837123871e-02 -6.067934632301330566e-02 -1.024980098009109497e-01 3.688409924507141113e-02 -7.672058045864105225e-02 -1.099787354469299316e-01 -7.702044397592544556e-02 9.441982209682464600e-02 -9.068604558706283569e-02 7.015570998191833496e-02 -6.803958863019943237e-02 2.220750600099563599e-02 7.521813735365867615e-03 -4.130243882536888123e-02 -4.617620259523391724e-02 -6.797813624143600464e-02 1.490058097988367081e-02 2.802297286689281464e-02 -3.948341310024261475e-02 6.238989159464836121e-02 -5.025672167539596558e-02 -2.206440456211566925e-02 -9.445614367723464966e-02 -4.266103729605674744e-02 -4.138556867837905884e-02 1.604459062218666077e-02 6.411858648061752319e-02 -7.720832526683807373e-02 4.720780253410339355e-02 1.255360431969165802e-02 4.695941135287284851e-02 -4.546227678656578064e-02 -9.813128411769866943e-02 -9.881440550088882446e-02 -2.774295769631862640e-02 2.922835946083068848e-02 -2.444735355675220490e-02 -7.196802645921707153e-02 -1.088902801275253296e-01 -4.262088611721992493e-02 -8.821433037519454956e-02 -1.550061628222465515e-02 -2.853655070066452026e-02 6.421731412410736084e-02 -3.356933966279029846e-02 -3.904767706990242004e-02 -1.015180647373199463e-01 -1.304094679653644562e-02 -1.502795331180095673e-02 -2.518827468156814575e-02 -1.040754616260528564e-01 -6.934382021427154541e-02 -2.384694106876850128e-02 3.019971214234828949e-02 -9.836398065090179443e-02 9.064169228076934814e-02 -5.088215321302413940e-02 5.353947728872299194e-02 -1.053530871868133545e-01 -1.404419634491205215e-02 6.120686233043670654e-02 3.234342485666275024e-02 -1.122555583715438843e-01 2.151913754642009735e-02 4.474388435482978821e-02 2.597931772470474243e-02 -6.042787805199623108e-02 -1.018641218543052673e-01 2.929065190255641937e-02 5.583108402788639069e-03 3.013812564313411713e-02 8.096595108509063721e-02 -9.920394420623779297e-02 -8.475627005100250244e-02 4.822432249784469604e-02 6.167043745517730713e-02 6.911750882863998413e-02 -8.806201629340648651e-03 -8.809760212898254395e-02 4.618299379944801331e-02 -2.438426204025745392e-02 2.202920150011777878e-03 1.347531285136938095e-02 6.141629070043563843e-02 -2.542438358068466187e-02 -2.989679016172885895e-02 6.322598457336425781e-02 -1.287308186292648315e-01 -9.033761918544769287e-02 1.003511846065521240e-01 -9.743094444274902344e-02 3.304883837699890137e-02 -9.601579606533050537e-02 -1.822465844452381134e-02 -7.933974266052246094e-02 -3.708747029304504395e-02 -8.202325552701950073e-02 -2.401798591017723083e-02 8.376984298229217529e-02 -4.386565834283828735e-02 5.138913169503211975e-02 -2.326133660972118378e-02 -6.317853927612304688e-02 -1.077004298567771912e-01 -5.513948947191238403e-02 1.027222955599427223e-03 -2.295616082847118378e-02 -2.224751934409141541e-02 -4.688690975308418274e-02 5.116859450936317444e-02 6.750027090311050415e-02 -9.441192261874675751e-03 6.472878158092498779e-02 -1.012206897139549255e-01 -3.879845142364501953e-02 3.866950515657663345e-03 3.568672016263008118e-02 5.393557623028755188e-02 4.130238667130470276e-02 -9.275591000914573669e-03 -1.058537662029266357e-01 7.728815823793411255e-02 -4.139887169003486633e-02 -7.597121596336364746e-02 -1.100055407732725143e-03 -6.156812980771064758e-02 -3.038771264255046844e-02 -5.705641210079193115e-02 -7.925710082054138184e-02 4.030654206871986389e-02 -7.340035401284694672e-03 5.871287360787391663e-02 7.204340398311614990e-02 6.706193834543228149e-02 -4.726181551814079285e-02 4.169116169214248657e-02 -3.665345162153244019e-02 -3.208545222878456116e-02 -7.449514418840408325e-02 -9.525641798973083496e-02 7.376907020807266235e-02 3.938037529587745667e-02 -1.780577003955841064e-03 2.345500141382217407e-02 -8.954265713691711426e-02 -2.659589238464832306e-02 2.697884477674961090e-02 -4.648512229323387146e-02 7.488552480936050415e-02 1.294334512203931808e-02 3.760614618659019470e-02 -5.454070493578910828e-02 7.725026458501815796e-02 -3.381711989641189575e-02 -5.277837812900543213e-02 -1.124534662812948227e-02 2.267562411725521088e-02 8.748188614845275879e-02 1.621619425714015961e-02 -6.704593449831008911e-02 -2.066333778202533722e-02 -5.063682794570922852e-02 -7.546763867139816284e-02 -4.650463908910751343e-02 -4.395687580108642578e-02 2.100391685962677002e-02 -9.006143361330032349e-02 -4.764388129115104675e-02 -8.809942752122879028e-02 2.807766385376453400e-02 -1.175186038017272949e-02 1.816776581108570099e-02 8.566769957542419434e-02 8.060463517904281616e-02 7.614190131425857544e-02 -3.013413166627287865e-03 4.196607321500778198e-02 -3.650639206171035767e-02 5.258607864379882812e-02 -5.625861510634422302e-02 -1.238719932734966278e-02 2.319875545799732208e-02 -9.298630803823471069e-02 3.744018077850341797e-02 8.441945165395736694e-02
-8.925831317901611328e-02 1.570817269384860992e-02 -6.151893734931945801e-02 -3.581323474645614624e-02 -2.346411161124706268e-02 6.447953730821609497e-02 -1.397373154759407043e-02 -5.213012546300888062e-02 -3.524608910083770752e-02 5.324342474341392517e-02 -1.091022882610559464e-02 2.915060892701148987e-02 -8.696421049535274506e-03 8.296954631805419922e-02 -4.412857443094253540e-02 3.698522597551345825e-02 7.621343433856964111e-02 1.289734244346618652e-01 2.674903534352779388e-02 -1.039001531898975372e-02 -3.644240275025367737e-02 1.311515271663665771e-02 -5.557178985327482224e-03 -5.758502334356307983e-02 9.654350578784942627e-02 -2.154758758842945099e-02 -1.922067999839782715e-02 1.107463520020246506e-02 -3.904639184474945068e-02 7.969237118959426880e-02 -2.948481030762195587e-02 6.568070501089096069e-02 6.339787691831588745e-02 -3.657463565468788147e-02 -8.077968657016754150e-02 -7.714413851499557495e-02 9.845955669879913330e-02 4.217039793729782104e-02 -8.308874070644378662e-02 2.444923669099807739e-02 -1.198136806488037109e-02 -8.565296232700347900e-02 5.086678639054298401e-02 -9.792580455541610718e-02 -3.462534397840499878e-03 4.178704321384429932e-02 4.920668900012969971e-02 7.977715879678726196e-02 -1.306574977934360504e-02 8.870092779397964478e-02 1.080909650772809982e-02 -6.551831960678100586e-02 4.552376642823219299e-02 -5.814027041196823120e-02 -4.446630179882049561e-02 -4.567562136799097061e-03 6.277658790349960327e-02 -7.884261198341846466e-03 -1.398465409874916077e-02 6.513223052024841309e-02 -6.134284660220146179e-02 5.609627068042755127e-02 -1.091248635202646255e-02 -1.957207731902599335e-02 3.486978635191917419e-02 -5.476209335029125214e-03 4.204829409718513489e-02 -6.704761832952499390e-02 2.911962568759918213e-03 -1.954610273241996765e-02 -9.262694045901298523e-03 -8.678173646330833435e-03 5.274872854351997375e-02 -4.513276368379592896e-02 6.331920623779296875e-02 1.697906292974948883e-02 7.892067730426788330e-02 8.894992619752883911e-02 -5.431588739156723022e-02 7.983177900314331055e-02 -6.374217569828033447e-02 -7.422000914812088013e-02 -5.258563533425331116e-02 4.805893450975418091e-02 7.409559190273284912e-02 5.520357564091682434e-02 7.141363620758056641e-02 -1.106745824217796326e-01 -1.236525829881429672e-03 9.510184824466705322e-02 2.755405940115451813e-02 -3.872086480259895325e-02 -3.091605938971042633e-02 4.341548681259155273e-02 6.130119040608406067e-02 3.596838563680648804e-02 8.090902864933013916e-02 4.054031521081924438e-02 -1.725128665566444397e-02 -8.841945976018905640e-02 -6.691665947437286377e-02 3.959411382675170898e-02 -8.191901445388793945e-02 -4.150640591979026794e-02 -1.967780850827693939e-02 -6.334127858281135559e-03 -4.948199167847633362e-02 2.377600781619548798e-02 1.747472584247589111e-02 -1.625107787549495697e-02 -4.306204989552497864e-02 5.499604344367980957e-02 -5.413608998060226440e-02 -7.888644188642501831e-02 2.652220800518989563e-02 -9.299723431468009949e-03 -5.567369237542152405e-02 4.772718250751495361e-02 7.804291695356369019e-02 -5.572603642940521240e-02 6.219322606921195984e-02 8.190662413835525513e-02 3.732119873166084290e-02 -7.840427011251449585e-02 -5.740440636873245239e-02 1.575896516442298889e-02 -6.174552068114280701e-02 9.106820821762084961e-02 -5.027357488870620728e-03 5.816271901130676270e-02 2.688074856996536255e-02 -9.408430010080337524e-02 -9.558228403329849243e-02 4.033358395099639893e-02 -1.645363681018352509e-02 2.463142201304435730e-02 -6.246950477361679077e-02 -5.523472651839256287e-02 3.613395988941192627e-02 -7.397943735122680664e-02 1.983212493360042572e-02 7.231167703866958618e-02 -8.600986748933792114e-02 8.611072599887847900e-02 -1.589941047132015228e-02 -2.158857183530926704e-03 2.342288382351398468e-02 1.476341579109430313e-02 -1.934896223247051239e-02 2.846194058656692505e-02 -7.307559996843338013e-02 -1.402089931070804596e-02 5.945046246051788330e-02 -3.325510770082473755e-02 -5.837771669030189514e-02 1.054356619715690613e-01 2.393379062414169312e-02 3.061219304800033569e-02 5.831815674901008606e-02 7.785327732563018799e-02 -3.830828936770558357e-03 6.188596040010452271e-02 -6.857648491859436035e-02 8.903503417968750000e-02 -4.207761213183403015e-02 5.416861921548843384e-02 3.060379438102245331e-02 -9.267716854810714722e-02 -5.015242099761962891e-02 -5.910637229681015015e-02 -4.333464801311492920e-02 3.372517228126525879e-02 2.003477886319160461e-02 -3.409890830516815186e-02 -1.169765815138816833e-01 -7.158233970403671265e-02 4.824963584542274475e-02 -3.130659461021423340e-02 -8.474517613649368286e-02 -8.244310319423675537e-02 -7.150539010763168335e-02 5.796603858470916748e-02 3.842730447649955750e-02 -6.705957651138305664e-02 6.891137361526489258e-02 1.026049256324768066e-01 -7.121179997920989990e-02 3.607648611068725586e-02 -7.046462595462799072e-02 -3.351778909564018250e-02 6.560071557760238647e-02 2.441685087978839874e-02 -5.984128266572952271e-02 -2.257478050887584686e-02 -6.064233556389808655e-02 5.649054050445556641e-02 -4.014727193862199783e-03 6.017397716641426086e-02 -9.045976400375366211e-02 7.962873578071594238e-02 -2.316519245505332947e-02 -7.258385419845581055e-02 -5.135769024491310120e-02 -8.174732327461242676e-02 -4.481508210301399231e-02 -8.418361842632293701e-02 9.742415859363973141e-04 -4.401439055800437927e-02 4.405920952558517456e-02 -2.122153900563716888e-02 -3.322628885507583618e-02 -7.474628835916519165e-02 1.847014017403125763e-02 -2.760856784880161285e-02 3.684480115771293640e-02 3.263373300433158875e-02 3.286615386605262756e-02 -9.288548678159713745e-02 -3.510718792676925659e-02 -6.465636193752288818e-02 -6.731010973453521729e-03 -6.334779318422079086e-03 7.194294035434722900e-02 -3.929861262440681458e-02 2.550545893609523773e-02 3.794409334659576416e-02 -3.011536411941051483e-02 -7.735675573348999023e-02 -6.617857515811920166e-02 -3.655272349715232849e-02 8.922812342643737793e-02 -5.671474337577819824e-02 -7.894890755414962769e-02 -4.916433990001678467e-02 -9.949098527431488037e-02 3.878645971417427063e-02 -4.643873497843742371e-02 -4.946789890527725220e-02 1.745038107037544250e-02 2.849469706416130066e-02 7.116680592298507690e-02 -7.196502387523651123e-02 -5.774259567260742188e-02 -8.349289000034332275e-02 -7.390600442886352539e-02 -1.160428486764431000e-02 -3.486167266964912415e-02 -6.618865579366683960e-02 7.782926410436630249e-02 -8.867157995700836182e-02 4.727161303162574768e-02 -6.714224070310592651e-02 6.339086592197418213e-02 2.206118032336235046e-02 6.678248196840286255e-02 -2.387496829032897949e-02
-4.601645097136497498e-02 1.179492566734552383e-02 9.021578729152679443e-02 -1.344114691019058228e-01 -1.134662777185440063e-01 -8.666689693927764893e-02 2.592645213007926941e-02 1.668025180697441101e-02 3.133017197251319885e-02 -1.109450832009315491e-01 -3.564071841537952423e-03 7.421370595693588257e-02 4.598719533532857895e-03 -1.098655089735984802e-01 -1.319429278373718262e-01 -3.541890298947691917e-03 4.511918872594833374e-03 -3.692786768078804016e-02 -5.262534692883491516e-02 -9.163061529397964478e-02 3.825220465660095215e-02 5.820552259683609009e-02 -7.801882922649383545e-02 2.895194105803966522e-02 5.341881513595581055e-02 -9.621573612093925476e-03 4.604091809596866369e-04 5.433438345789909363e-02 3.075324371457099915e-02 1.697096228599548340e-02 5.676570534706115723e-02 -8.203895390033721924e-02 3.781542927026748657e-02 -1.811505109071731567e-02 -2.168636582791805267e-02 -6.708244234323501587e-02 -8.441707491874694824e-02 3.736170381307601929e-02 -8.832800388336181641e-02 -6.494849920272827148e-02 4.727102071046829224e-02 9.011398069560527802e-03 2.179929055273532867e-02 -8.369942009449005127e-02 5.869630351662635803e-02 -1.141507476568222046e-01 -6.444960832595825195e-02 -4.846063628792762756e-02 -2.101430483162403107e-02 -6.076137069612741470e-03 -4.842490423470735550e-03 4.441322758793830872e-02 -1.286167055368423462e-01 4.847501590847969055e-02 -6.210161373019218445e-02 4.415406286716461182e-02 -2.047393471002578735e-02 6.235293298959732056e-02 -5.549300462007522583e-02 4.035346210002899170e-02 -3.491305559873580933e-02 -4.359487444162368774e-02 -1.081807464361190796e-01 6.705691665410995483e-02 2.480918169021606445e-02 -6.736697256565093994e-02 9.394031018018722534e-02 8.949411101639270782e-03 -1.521632773801684380e-03 -2.700859867036342621e-02 1.737314648926258087e-02 -2.258074656128883362e-02 -7.994405180215835571e-02 2.414799667894840240e-02 -2.189343795180320740e-02 -2.582211978733539581e-02 -9.632482379674911499e-02 -2.491587959229946136e-02 -7.151303440332412720e-02 -3.475552797317504883e-02 7.748426496982574463e-02 5.685329064726829529e-02 7.702064514160156250e-02 1.315728109329938889e-02 -1.056324765086174011e-01 2.937330305576324463e-02 -1.340621858835220337e-01 3.802018985152244568e-02 4.483805596828460693e-02 -1.224271859973669052e-02 -3.811509162187576294e-02 -9.189748205244541168e-03 7.604319602251052856e-02 4.674771334975957870e-03 -1.099101640284061432e-02 3.859711810946464539e-02 -9.468101710081100464e-02 -4.261846467852592468e-02 -1.381489038467407227e-01 3.924968186765909195e-03 4.807049781084060669e-02 6.265917420387268066e-02 -4.086351394653320312e-02 3.911792114377021790e-02 -1.030353009700775146e-01 1.287841424345970154e-02 -5.940936878323554993e-02 -1.010678634047508240e-01 -4.041882231831550598e-02 2.873667143285274506e-02 -1.127328127622604370e-01 -9.096393734216690063e-02 -3.926687687635421753e-02 6.277812272310256958e-02 -4.816267266869544983e-02 -1.021351590752601624e-01 1.765791885554790497e-02 6.375483423471450806e-02 -1.136412564665079117e-02 3.243619948625564575e-02 -4.385507106781005859e-02 3.232605755329132080e-02 -1.266962438821792603e-01 7.259531319141387939e-02 -5.696094781160354614e-02 -6.030115485191345215e-02 -3.803155198693275452e-02 -4.004851356148719788e-02 -9.313213825225830078e-02 2.021293714642524719e-02 -1.124553475528955460e-02 -1.443553995341062546e-02 -1.237853616476058960e-02 -4.094193130731582642e-02 5.239687860012054443e-02 -6.514844298362731934e-02 6.622995249927043915e-03 7.869917154312133789e-02 -5.929728224873542786e-02 4.330180212855339050e-02 2.527994569391012192e-03 -6.084065418690443039e-03 -5.433210171759128571e-03 -3.850849717855453491e-02 -6.408516317605972290e-02 7.417722046375274658e-02 -1.143886446952819824e-01 -1.205063983798027039e-02 7.016841322183609009e-02 -4.890330880880355835e-02 -1.574622094631195068e-02 2.375369891524314880e-02 -7.572097331285476685e-02 6.285703927278518677e-02 -8.574507199227809906e-03 -1.042502969503402710e-01 -3.549977205693721771e-03 1.532546523958444595e-02 2.146571502089500427e-02 -1.206751465797424316e-01 1.366639137268066406e-02 -1.579185016453266144e-02 -9.494683891534805298e-02 -1.032029651105403900e-02 6.118487939238548279e-02 4.672757536172866821e-02 5.665281787514686584e-02 -8.553584665060043335e-02 1.152948848903179169e-02 6.748019251972436905e-03 2.014286629855632782e-02 -2.467602305114269257e-02 1.747137121856212616e-02 -2.102511934936046600e-02 -3.014682047069072723e-02 -1.219701319932937622e-01 -5.619752686470746994e-03 3.921083733439445496e-02 1.583155989646911621e-02 -7.113088667392730713e-02 6.652314215898513794e-02 -2.745440229773521423e-03 -6.151898205280303955e-02 -1.580183207988739014e-02 2.201709337532520294e-02 -1.054172888398170471e-01 -6.668718904256820679e-02 6.398952007293701172e-02 -1.216264292597770691e-01 1.383090112358331680e-02 -4.595079645514488220e-02 3.280794247984886169e-02 7.551883906126022339e-02 -2.528513409197330475e-02 6.683898717164993286e-02 3.187295794486999512e-02 -1.046149432659149170e-01 2.876895107328891754e-02 6.823017448186874390e-02 -5.658048018813133240e-02 4.810298979282379150e-02 2.931991592049598694e-02 -1.104802265763282776e-01 -2.582727745175361633e-02 6.891006976366043091e-02 5.238800123333930969e-02 5.476819351315498352e-02 6.875602155923843384e-02 3.637680783867835999e-02 -4.754262417554855347e-02 2.326805144548416138e-03 -5.964267253875732422e-02 4.188485071063041687e-02 -4.020567983388900757e-02 -5.970745161175727844e-02 -5.509473010897636414e-02 -1.770652383565902710e-01 -5.095972120761871338e-02 1.036922074854373932e-02 5.222653597593307495e-02 3.798992186784744263e-02 1.887244358658790588e-02 -1.111919991672039032e-03 -1.006293818354606628e-01 -1.502490229904651642e-02 -1.068515423685312271e-02 -1.523401681333780289e-02 6.899312138557434082e-02 3.723263740539550781e-02 6.601734459400177002e-02 1.738105341792106628e-02 7.989395409822463989e-02 3.002971038222312927e-02 4.602808877825737000e-02 1.652178727090358734e-02 -8.864956349134445190e-02 1.452897489070892334e-02 -4.694482684135437012e-02 -1.206487491726875305e-01 7.343544065952301025e-02 6.364055722951889038e-02 3.339425846934318542e-02 -5.023428238928318024e-03 -5.432589352130889893e-02 6.075779907405376434e-03 -2.270968398079276085e-03 2.988649532198905945e-02 -5.233538895845413208e-02 -5.439914390444755554e-02 -3.316486254334449768e-02 6.234114244580268860e-02 -2.571161603555083275e-03 -2.427997812628746033e-02 -1.084745898842811584e-01 -1.705137826502323151e-02 6.701567769050598145e-02
-8.875212818384170532e-02 8.124766498804092407e-02 5.250566080212593079e-02 7.044056802988052368e-02 1.208554953336715698e-02 -5.892707849852740765e-04 -3.802729025483131409e-02 -4.739551991224288940e-02 7.374892383813858032e-02 4.458391666412353516e-02 -8.012774586677551270e-02 3.564272820949554443e-02 4.061162099242210388e-02 7.197953015565872192e-02 5.206613615155220032e-02 -6.225507706403732300e-02 -1.077304184436798096e-01 -1.754345186054706573e-02 -1.120486855506896973e-01 4.001291841268539429e-02 -7.216548174619674683e-02 -8.212496340274810791e-02 -2.297437191009521484e-02 -5.210076924413442612e-04 -4.440212994813919067e-02 -5.038446560502052307e-02 -6.844570860266685486e-03 -1.829582452774047852e-02 4.756041243672370911e-02 -6.844731420278549194e-02 -4.628980904817581177e-02 -4.432665184140205383e-02 7.487095147371292114e-02 -8.509656786918640137e-02 -5.661489441990852356e-02 7.448948919773101807e-02 4.411423206329345703e-02 -6.337650865316390991e-02 2.522259950637817383e-02 -1.511689741164445877e-02 -5.609549582004547119e-02 5.718015506863594055e-02 -3.210337087512016296e-02 -8.667916804552078247e-02 5.596599355340003967e-02 -1.993799209594726562e-02 1.105201020836830139e-01 -1.392870768904685974e-02 -3.928223624825477600e-02 -3.305709734559059143e-02 8.405522257089614868e-02 4.506437852978706360e-02 -4.286111798137426376e-03 5.175054818391799927e-02 6.852251291275024414e-02 5.969198048114776611e-02 -7.652022875845432281e-03 2.091411501169204712e-02 -8.159632235765457153e-02 7.388360053300857544e-02 -5.974667519330978394e-02 2.809086348861455917e-03 1.048537250608205795e-02 4.107160866260528564e-02 4.448425769805908203e-02 4.433402419090270996e-02 2.149497717618942261e-02 3.268001973628997803e-02 -1.646949909627437592e-02 -5.576772242784500122e-02 1.389617659151554108e-02 -6.377761811017990112e-02 6.190272979438304901e-03 4.167967289686203003e-02 -4.711142182350158691e-02 -9.200257062911987305e-02 -2.829217538237571716e-02 9.071986190974712372e-03 -4.861608520150184631e-02 3.827907517552375793e-02 2.382235229015350342e-02 5.473910644650459290e-02 -7.136714458465576172e-02 6.527079641819000244e-02 5.011770874261856079e-02 -7.415639609098434448e-02 3.857238218188285828e-02 -6.625615060329437256e-02 -6.100507080554962158e-02 7.042861729860305786e-02 -8.043137937784194946e-02 -9.064185619354248047e-02 6.907055526971817017e-02 -5.430948734283447266e-02 -1.255602203309535980e-02 2.463199384510517120e-02 7.320532947778701782e-02 -1.203406080603599548e-01 6.779240071773529053e-02 -6.805121898651123047e-02 -2.927362173795700073e-02 3.285318613052368164e-02 -4.347806330770254135e-03 4.069780558347702026e-02 1.309078931808471680e-02 -5.147530883550643921e-02 1.808656612411141396e-03 -3.082864219322800636e-03 3.680128604173660278e-02 1.635766215622425079e-02 -7.294958829879760742e-02 8.436693251132965088e-02 2.249165438115596771e-02 1.922911591827869415e-02 3.038622811436653137e-02 3.925647586584091187e-02 -6.095899268984794617e-02 4.892694205045700073e-02 -3.910429775714874268e-02 -4.903640598058700562e-02 2.672729641199111938e-02 -1.027414798736572266e-01 3.091201186180114746e-03 2.802655845880508423e-02 -1.104320883750915527e-01 -5.181006714701652527e-02 -8.097197115421295166e-02 -8.214099705219268799e-02 6.560169160366058350e-02 6.136329099535942078e-02 2.176091820001602173e-02 -6.981229037046432495e-02 -9.055041708052158356e-03 -7.684147567488253117e-04 3.889177693054080009e-03 1.118421182036399841e-01 -7.339661568403244019e-02 5.167827755212783813e-02 4.574235156178474426e-02 -5.841295421123504639e-02 -5.852202326059341431e-02 -6.291813217103481293e-03 1.768033392727375031e-02 -7.701943814754486084e-02 -3.495861310511827469e-03 3.558667004108428955e-02 -7.663338910788297653e-03 7.868943363428115845e-02 -6.805472820997238159e-02 8.922277390956878662e-02 1.040197983384132385e-01 -6.556520611047744751e-02 4.369009658694267273e-02 -6.168520450592041016e-02 2.928980439901351929e-02 -7.951916009187698364e-02 -4.164485260844230652e-02 -1.191174332052469254e-02 -3.141216188669204712e-02 -4.966890439391136169e-02 -1.807692088186740875e-02 -1.595799438655376434e-02 4.789561964571475983e-03 8.120907098054885864e-02 -6.041457131505012512e-02 -8.112626150250434875e-03 -3.302844986319541931e-02 5.397304520010948181e-02 7.680439949035644531e-02 7.535057608038187027e-03 3.839155659079551697e-02 1.469011232256889343e-02 6.092434003949165344e-02 -5.132924392819404602e-02 6.634585559368133545e-03 -2.209009230136871338e-02 1.558988913893699646e-02 5.894092842936515808e-02 -6.899747997522354126e-02 -2.014234289526939392e-02 6.340027786791324615e-03 -6.958990544080734253e-02 3.448840603232383728e-02 1.701437309384346008e-02 2.011325024068355560e-02 -1.340719312429428101e-01 -6.024362146854400635e-02 5.503261461853981018e-02 -6.654122471809387207e-02 7.947427034378051758e-02 5.821213498711585999e-02 5.302506312727928162e-02 -5.130625213496387005e-04 -8.464813977479934692e-02 -5.966631323099136353e-02 -4.105761274695396423e-02 -3.086549788713455200e-02 -7.739903777837753296e-02 8.146660029888153076e-02 -3.009259328246116638e-02 4.155752807855606079e-02 5.367606505751609802e-02 1.230462547391653061e-02 -3.235789388418197632e-02 -2.615854144096374512e-02 9.348712861537933350e-03 7.163719087839126587e-02 1.907844841480255127e-02 3.127132356166839600e-02 -3.137645125389099121e-02 -7.407209370285272598e-03 6.176059320569038391e-02 -2.947447821497917175e-02 8.270416408777236938e-02 1.989643648266792297e-02 8.515463024377822876e-02 -1.475433409214019775e-01 -2.840865775942802429e-02 -2.631348185241222382e-02 1.737066544592380524e-02 3.001075796782970428e-02 8.213324099779129028e-02 -6.604380905628204346e-02 8.450024574995040894e-02 3.609755635261535645e-02 7.776867598295211792e-02 2.322706580162048340e-02 7.333708554506301880e-02 -7.042769342660903931e-02 1.258956734091043472e-02 4.837883636355400085e-03 2.436681836843490601e-02 -8.965568989515304565e-02 -3.216948127374053001e-03 -6.768608093261718750e-02 8.753784000873565674e-02 -8.211569488048553467e-02 -3.169476240873336792e-02 -4.416315630078315735e-02 7.687047868967056274e-02 -2.394410781562328339e-02 -4.067399725317955017e-02 5.618380382657051086e-02 -1.644430682063102722e-02 -4.407560452818870544e-02 -4.935733228921890259e-02 5.357409268617630005e-02 3.817296773195266724e-02 -4.852739721536636353e-02 -2.976301871240139008e-02 8.795702457427978516e-02 -8.911128155887126923e-03 8.623743802309036255e-02 -4.740324616432189941e-02 6.336805224418640137e-02 -4.651239141821861267e-02
